{"config":{"value_dim":16,"iters":20,"max_iters":28,"softmax_temp":0.5,"highway_gate":true,"n_dirs":4},"raw_dim":3,"reward_proj":{"weight":[-1.8705497,-1.1377122,0.36876336],"bias":[0.9509941],"in_dim":3,"out_dim":1},"gate_proj":{"weight":[1.4657562,0.29024637,0.34406403],"bias":[0.9262983],"in_dim":3,"out_dim":1},"value_proj":{"weight":[-0.019034704,0.98071146,-0.50013,-0.8122999,-0.78843397,0.081477925,-0.6329621,0.026872009,0.54674774,-0.12111462,-0.7784516,0.5090087,0.52660286,0.54768384,-0.1931102,0.4553567,-0.40619838,0.06971043,-0.20299149,-0.14788628,0.15919769,0.16522028,-0.41266614,-0.22764105,1.2708762,0.095811225,-0.34337285,-0.7384782,-0.45713165,-0.012318895,0.8263605,1.159866,0.31377345,-0.43610266,0.55639136,-0.9637495,-1.0459336,0.39510274,-0.22637875,-0.9071003,-0.24175078,-0.038409337,-0.90416104,-0.2850555,-0.15782227,-0.8694799,-1.4615585,1.2501833],"bias":[-0.015262636,0.013883157,-0.015764877,-0.006135528,0.009937787,-0.008909199,-0.0062800883,-0.01670058,-0.00782632,0.0019046039,-0.015465101,-0.0051072366,-0.008517994,-0.02118153,-0.003733236,-0.0067798896],"in_dim":3,"out_dim":16},"agent_proj":{"weight":[-0.77206874,-0.36443642,-0.5822342],"bias":[0.0],"in_dim":3,"out_dim":1},"highway_proj":{"weight":[0.041657187,-0.20737818,-0.2169706,0.26315293,-0.017230107,-0.08396726,0.38165006,-0.020664597,0.0018113476,-0.019642595,0.23204197,-0.32021385,0.14122005,0.14732647,-0.17278422,0.047659628,0.102947995,-0.117950015,0.0353094,0.23121402,0.34204474,-0.3530639,-0.024752263,-0.45317447,0.0821141,-0.51420265,-0.000026247906,-0.09827804,0.019609356,-0.46491545,-0.11949417,-0.39542896,-0.08692412,-0.29003212,0.23068719,0.3395551,0.3227216,-0.41065446,-0.07813266,-0.0040565887,-0.069721356,0.13927226,0.28213966,-0.025080042,0.4610631,0.06297624,-0.16927804,0.4137849,-0.3087223,0.061228685,0.045613587,0.022914367,0.048209786,-0.118363716,-0.046246402,0.24175861,0.081123166,-0.131292,-0.4027495,0.1775559,-0.39882365,0.21737102,-0.12428203,-0.089032106,0.065102436,-0.056105066,0.06819859,0.18196529,-0.16044745,0.33613765,0.054330114,-0.42194015,0.06675021,-0.1020849,-0.054233536,0.33771154,0.15466557,0.05071442,-0.15698911,0.016117692,0.09338986,-0.20407936,0.020854307,0.068061784,0.3086526,-0.11218426,-0.28475827,-0.020883037,-0.15669358,0.096704945,0.2407557,-0.058067545,-0.47131678,-0.14120291,0.20368287,-0.12181514,0.5154476,0.3955968,-0.14194421,-0.20065968,0.027530406,-0.27864707,0.25490907,-0.2800892,0.28514338,0.093873285,-0.30766058,-0.06252177,-0.3069216,0.29370946,-0.035071336,-0.34483773,0.42182958,0.047897797,0.04844676,0.16788507,-0.35371226,-0.17050846,0.3021541,0.14053705,0.1271451,0.25776923,-0.14697531,-0.018597905,0.25304392,-0.056514237,0.35135078,-0.05625099,-0.20699662,0.047657028,0.23907258,-0.2541309,-0.10014641,0.16967185,0.070276126,-0.06846071,0.03867158,0.37705705,-0.08415901,0.11468418,-0.18572055,0.91566294,0.060570505,-0.085054934,-0.1365265,0.07392872,0.44182274,0.26289237,0.09625638,0.08133651,0.03679566,0.04293042,0.15915212,0.26408032,0.4327669,0.044499975,-0.26997566,0.40019804,-0.11169831,0.076637216,-0.033339504,0.17653583,-0.18450259,0.23030151,-0.011564061,0.025349643,0.21103893,0.060187474,-0.2156949,0.2816868,0.11752954,0.051183574,-0.18992949,-0.21362594,0.107265815,0.120377794,-0.1401494,-0.16111402,-0.17052206,-0.041804925,-0.373309,-0.32742774,-0.1252213,-0.44674206,-0.10559989,0.19693476,0.055536542,-0.40399566,-0.36402267,-0.092637375,-0.29671937,-0.17823774,0.0797022,-0.04979724,0.18569331,0.10476862,-0.069012,0.15647787,-0.47780183,0.25176844,-0.14817831,0.16540681,0.26789492,-0.029878644,-0.12785642,-0.28984883,-0.25121835,-0.021194234,-0.27673954,0.15139307,0.5787041,0.10216191,-0.24500658,-0.10628538,-0.3000494,0.15898295,0.32208082,-0.18995038,-0.27342707,-0.011851007,0.67445755,0.029402832,0.078085266,-0.18258101,-0.03759249,0.25441208,0.37480053,0.15686859,0.11624101,-0.3164592,0.026584525,0.088399485,0.021233404,-0.4553772,0.037540264,0.26079163,0.45499897,0.065149866,-0.11425096,-0.15983541,0.18284686,-0.5328196,-0.39671504,-0.24284038,-0.037054118,0.089443624,-0.22100067,0.27972788,-0.0935944,0.23029032,-0.097430624,0.028592229,-0.2750649,-0.03151178,-0.25252324,0.118016355,0.08767366,0.14178716,-0.3158285,0.047411345,-0.24638124,-0.35416242,0.23031393,-0.034037296,-0.01276024,0.21490084,0.27293912,0.123810664,-0.14516044,-0.17055172,0.0029675001,-0.022509158,-0.12453867,-0.25620368,-0.14306127,0.061981324,0.083441965,0.4954212,-0.17551371,0.30131286,0.3503405,-0.038258396,-0.0683221,0.048854012,-0.037730332,0.25444138,-0.28369164,-0.53346336,-0.24917944,-0.38298112,0.016092915,0.38217726,-0.5281055,-0.077684544,-0.38019514,0.12922817,-0.020996904,-0.27014774,0.100340754,-0.24083057,0.19050881,0.10890405,0.037929412,0.06572978,-0.12971121,-0.66642797,0.07090118,0.14859587,-0.20512308,0.13222577,-0.23495024,0.046761196,-0.28175998,0.12474124,0.28353766,-0.21341614,0.071850896,-0.21597724,0.18507256,0.36817294,-0.05392238,-0.27783984,-0.16458955,-0.14517717,0.056363035,0.11578764,-0.15945375,-0.18504289,-0.36767524,0.25918546,0.24891259,0.3143383,-0.12606609,0.10273799,0.2807568,-0.41254598,0.6006481,-0.30878824,0.017468458,0.37653413,0.067851886,-0.04693619,-0.37784,-0.12445185,-0.10551021,0.13241439,0.1957335,-0.42938617,-0.101849556,0.13665672,-0.27048597,0.20816192,-0.25426048,0.34840232,-0.024972638,-0.19097658,-0.38444236,-0.18789469,0.0067374134,-0.25910574,-0.22247665,0.34889364,-0.00018422875,0.109815635,0.21803127,-0.04614649,-0.016899953,-0.11654909,-0.03940045,0.3978274,0.021033961,-0.34504992,-0.2981521,0.19285767,-0.49353874,-0.19969381,-0.1889235,0.19306411,-0.34525204,-0.123089984,-0.17308125,-0.16116025,0.029988961,0.40360114,-0.29147372,0.072473615,0.2231261,-0.40978917,-0.23829879,-0.025709653,-0.034309335,-0.36846745,-0.08199751,-0.068884656,-0.37836674,0.20899107,-0.1699963,-0.13578437,-0.15073873,0.22981545,0.027013,0.18210009,0.059287276,0.032139417,0.16953759,-0.042156562,-0.16338554,-0.12614806,0.040429506,-0.027936514,0.54131675,-0.064067036,0.37251133,-0.067339376,-0.1764001,-0.4259595,0.14845838,0.08569204,-0.15619522,0.3287778,0.11632215,-0.21091953,-0.008690752,0.101226814,-0.30593547,-0.22974719,0.49642494,-0.15777814,-0.50907075,-0.29694813,0.17464602,-0.24377558,-0.0661295,-0.14330426,0.0060556866,-0.11398128,0.32315242,0.28893077,-0.17153165,0.42979306,0.51800793,0.08398876,0.31152335,-0.120875254,0.3873462,0.06547983,0.11336767,0.2823673,-0.29544166,-0.10657462,-0.35518146,-0.12565249,-0.17347287,0.4503163,0.02910871,-0.0062491777,0.07025426,-0.09223072,-0.24264269,-0.2866955,0.045535237,0.10308294,0.1210416,-0.08637141,-0.28875402,0.34679416,-0.13882615,-0.35998482,-0.13746414,0.009502018,-0.41620407,0.22072268,0.28077042,0.22401719,0.07233551,-0.3036579,-0.21111828,0.47916663,0.34346327,-0.34058905,-0.0044071903,-0.2151574,0.17925356,-0.35027158,-0.42205593,0.18997437,0.10319917,-0.35847026,-0.382344,-0.26874998,-0.13395509,-0.23119691,0.20385881,-0.12211808,-0.0963291,-0.2888901,-0.07790226,-0.11852644,-0.042616475,-0.44953907,-0.06399098,-0.30610016,-0.21070285,0.12920217,0.35625207,-0.34815606,-0.13514194,-0.31805676,0.042817403,-0.30636472,-0.009696659,0.31530854],"bias":[-0.0046187593,-0.0043396982,0.011064644,-0.0021637587,-0.009405983,-0.0003761376,0.007845108,-0.005929575,0.02551877,-0.0026637802,-0.013092568,-0.0030249204,-0.005049514,0.0056884456,0.0081361495,0.0005183444],"in_dim":32,"out_dim":16},"move_head":{"weight":[-0.0026157189,-0.03037314,-0.02950256,0.36400875,-0.12585519,-0.024261007,-0.057863858,0.22133355,-0.07937615,-0.13297056,0.28336748,0.12059131,-0.015017845,0.06818844,-0.058857437,-0.11106447,-0.13935407,-0.25168905,0.17745835,0.13341168,0.1344079,-0.015941467,-0.14008854,-0.10342115,0.0983155,0.1917778,-0.031011807,0.29760754,-0.1776347,-0.13508713,0.21552761,-0.14277941,-0.17487629,0.015566966,-0.57096225,-0.008667827,-0.058159523,-0.42103168,-0.24181795,-0.16467914,-0.43648684,-0.20474929,-0.3694538,-0.08142538,-0.260361,-0.13981766,-0.18305299,-0.37525585,0.15725522,0.3352406,-0.08179506,0.13786362,-0.13318527,0.08128845,-0.07446199,0.17041469,0.19763534,0.19023381,-0.02045563,0.2237828,0.031708833,-0.102353744,0.037727077,-0.06368763,0.21419267,0.13188797,-0.078803994,-0.080776095,0.07872252,0.13637361,-0.18978447,0.23943327,0.32988855,-0.016714398,0.1250899,0.14176837,0.015800849,0.18660702,-0.13364391,-0.10556202,0.3254656,0.276375,0.11743423,0.09688864,0.10264886,0.16270894,0.39176896,0.029315239,0.11597793,0.021164509,0.0042378516,0.04858462,0.12394225,0.16404532,0.10332066,-0.11550291,0.08111675,0.045164607,0.15106979,-0.011362376,-0.22256671,0.03314572,-0.16421914,0.21552704,0.06747998,-0.13023075,-0.05844002,-0.003919333,0.10654679,0.004361851,0.102028795,0.03836118,-0.074247815,0.05673475,-0.1687779,-0.007399005,0.22578098,0.04023162,0.1570925,-0.15427527,-0.018168626,0.12800744,0.04593771,0.08569799,-0.21745832,-0.049885653,0.002764589,0.111351445,0.22471328,0.2123561,-0.17129472,-0.15424755,-0.044083674,-0.026663275,-0.018118195,0.20482387,0.1444499,0.17287304,0.123136625,0.15014687,0.18810324,-0.017629867,0.14493705,0.17356846,-0.47561565,-0.3544808,-0.13684548,-0.12478521,-0.09598944,-0.026745435,-0.4614981,-0.17647953,-0.4564077,-0.5455659,-0.41716573,-0.61058724,-0.1910139,0.05686761,-0.223183,-0.49903506,0.1706089,0.12887165,0.20456673,0.08060474,-0.039162714,0.10608883,-0.031172555,-0.044361908,0.08683369,0.13468471,0.03759463,-0.011638065,-0.19081935,0.20220686,0.37334064,0.04676035,0.39704734,0.25073022,0.17053252,0.17286737,0.16318572,0.115768716,0.089411736,0.049096584,0.3246808,-0.027623987,0.02085005,0.3341945,0.08671442,0.24296674,0.2207104,-0.10247118,0.06619936,0.05551229,-0.018875659,-0.024245512,-0.11929526,0.12383377,0.12595893,-0.01581531,-0.062742956,0.10010912,-0.07586046,-0.11436958,-0.17212892,-0.0801814,-0.13908172,-0.0700665,0.15517259,-0.09119493,-0.112399444,0.24811663,0.021922266,-0.26328954,0.13194962,0.019439613,0.30439648,0.12453891,-0.10231289,0.20994446,-0.1356414,-0.016580189,0.22298557,-0.1223178,0.15279509,0.065083556,0.1729169,-0.054569878,0.003376279,-0.12339491,0.017967194,-0.07551148,0.09768443,-0.030717444,0.16765209,0.20287833,0.14452974,0.10889657,0.06669077,0.17677541,0.25884378,0.06264904,0.31972292,0.041514378,0.033341844,0.002111099,0.39674821,-0.0060331523,-0.06254283,0.49733898,-0.10198999,0.06831022,0.2517289,0.0881368,-0.08050924,-0.15940152,-0.26082072,-0.17959824,-0.59520334,0.100289196,0.16078772,-0.23251812,-0.035057876,-0.2507361,-0.6041019,-0.34432986,-0.20615835,-0.19032297,-0.023429943,-0.36198553,-0.093343325,-0.45828667,0.20134483,0.06459352,0.17174904,0.018638039,0.20468894,0.04952859,-0.15633655,0.19440079,0.05829428,0.16330728,0.21557645,0.24605042,0.1446476,-0.01667762,0.07356827,-0.11871166,-0.12655188,0.13754593,-0.013933847,-0.021080898,0.10323552,0.029973894,-0.0226275,0.038253322,0.12430189,0.0011037576,-0.07637411,-0.26070204,-0.14263457,0.002723234,0.07193426,-0.003902357,-0.1259971,-0.0009891987,-0.033677876,-0.08946168,0.21770959,0.08056589,-0.074344434,0.05488012,0.0917781,0.14011869,-0.16758211,-0.1303323,0.1512151,-0.008663728,0.22958265,0.1858385,0.044874914,0.02342042,0.11004794,0.012361221,-0.09848002,0.2771929,0.25819197,0.07297584,0.28705218,-0.27279025,0.15637442,0.20242265,-0.08513107,0.043840453,0.11253712,0.22665457,0.041550938,0.21204358,0.02646201,0.015936743,-0.15255737,0.16377306,0.038867123,-0.0062210327,0.17734288,0.25654826,0.04298666,0.2696815,0.13988338,0.10269447,0.22402509,0.055289734,0.16040984,0.15149269,0.0051930593,0.07221489,-0.06644121,0.10034723,0.2291603,0.18523422,-0.028904872,0.26207578,-0.04274713,0.109982006,0.17471421,-0.03197752,-0.05048622,0.104849026,-0.24746944,-0.6183527,-0.31937078,-0.19114915,0.025121666,-0.5563301,-0.29288307,-0.40757492,-0.3076411,-0.16167147,-0.44479033,-0.29789177,-0.29305738,-0.2185734,-0.2822014,-0.13370427],"bias":[-0.0167946,-0.0061822953,0.010277773,0.012699075],"in_dim":96,"out_dim":4}}